-2.385828073993129933e-02
-2.740048028739358252e-02
-2.561407610890834366e-02
-1.912489508604608632e-02
-1.318490962475360288e-02
-4.030171780135222842e-03
2.712903138243516043e-03
3.871007733232771468e-03
7.672492143482003563e-03
6.076330998200978051e-03
-3.084947394382321281e-03
-1.288093701076844025e-02
-1.562067282567424290e-02
-1.870481368991192342e-02
-2.415251610046725145e-02
-2.366259649704469115e-02
-3.336173777293697379e-02
-5.295510402379000753e-02
-6.179789289944153524e-02
-3.810508383898335294e-02
5.720455795338967586e-03
4.623835697652128873e-02
4.984704174737262378e-02
5.203657187094571507e-02
5.550737662922054089e-02
4.986959634997023549e-02
3.820492593945550019e-02
7.252943871904590604e-03
-2.545797056933387856e-02
-4.521219648734930985e-02
-4.463080120292290537e-02
-3.178728485013966598e-02
-3.250589633938534562e-02
-6.526012060186386909e-02
-8.113613208065914573e-02
-4.038952547296333073e-02
4.108559985378473778e-02
8.723938448027278303e-02
9.489879987038957188e-02
9.875529600816654319e-02
9.469028996119525921e-02
7.977171360907873987e-02
6.778503423886292345e-02
2.677739564496120495e-02
-4.331342370464069669e-02
-7.031799767358430653e-02
-5.960073657236924366e-02
-3.344889491976129475e-02
-2.124583728313857514e-02
-4.530381243384822704e-02
-4.683802477752752047e-02
-1.297704954376770366e-02
4.033731607111135792e-02
7.767422226067326185e-02
7.852445263745433390e-02
8.778582092761874622e-02
8.092744320917838463e-02
7.433719141928646357e-02
4.993330105738139763e-02
1.150323054157882142e-02
-3.322787886534041280e-02
-6.633135025425716813e-02
-4.862454804114027529e-02
-2.306371938057895712e-02
-1.282203020184327982e-02
1.132628220316961179e-03
1.619936564460225381e-02
1.633625109738801387e-02
1.692587184514026885e-02
7.815088468668495922e-03
1.875186362392171693e-02
2.060268733122690155e-02
1.913763389584028501e-02
1.409486202334916082e-02
9.027785160558248964e-03
-4.984255471295337761e-03
-3.488264695267269139e-03
-7.712347250690667483e-03
-1.192318151917528928e-02
-1.275237326184673961e-02
8.124037959781461957e-04
4.769565497024178674e-02
6.708159160121278386e-02
3.928381551792132359e-02
-1.897706524915473980e-02
-4.780865316896500128e-02
-4.013779016486721668e-02
-4.219060946230034775e-02
-4.484472720548914049e-02
-3.904093479958422458e-02
-2.715854300054671572e-02
8.434389027438229242e-03
3.898531991123582729e-02
4.954011617023527242e-02
2.025018882753168437e-02
-3.597199319973133635e-03
2.429849658848937111e-02
7.001981271326838951e-02
7.901720919628360540e-02
5.227128146317473051e-02
-1.664661060095149261e-02
-5.841755200411425514e-02
-7.713954398109362787e-02
-8.188727790121290429e-02
-8.326600153784320668e-02
-7.406067874369656745e-02
-2.660364050153682727e-02
2.309976973320597080e-02
5.701838066264462018e-02
6.740510775491313777e-02
3.869908303141575412e-02
5.338415069952587994e-03
4.011285166731701213e-02
7.645201945376098318e-02
7.575969950094249561e-02
5.021113436643701022e-02
9.569560874103376011e-03
-4.568715029699873392e-02
-8.871778115787487540e-02
-1.038000691834206624e-01
-1.003816752589553885e-01
-6.787960105332316307e-02
-1.066188636248226185e-02
3.880774513531871223e-02
6.247919546608186186e-02
6.459527199958450816e-02
4.598286604625416440e-02
1.403809182893350944e-02
3.949729803079782275e-02
7.262550492588810969e-02
7.158475545816016250e-02
5.146287385155130789e-02
1.492348994318088914e-02
-3.568989172715590630e-02
-8.807371608198391599e-02
-1.059576209981976241e-01
-1.030302596209459881e-01
-7.360099925937925447e-02
-9.957018707406162933e-03
4.248918545496592480e-02
6.719308355182442016e-02
6.072704723227062562e-02
4.455352546337975478e-02
1.683473826291690192e-02
2.295177233668922734e-02
5.880992880060638417e-02
6.710826401113836881e-02
5.374186345569657158e-02
2.717751492830128984e-02
-3.054002576709592687e-02
-7.457291566681929773e-02
-8.896096425713573286e-02
-9.562614928046156426e-02
-8.162213980628948984e-02
-3.325183920425930917e-02
2.636795702784379067e-02
6.868857068934326737e-02
6.291339885321384218e-02
4.335637568602222075e-02
1.548891961397054658e-02
1.064336684064240597e-02
2.929467691317098887e-02
4.471203314569580783e-02
3.009809479628326040e-02
1.676812218698240167e-02
-1.148534323582357103e-02
-2.223608045000706121e-02
-3.074872333008019445e-02
-4.618456710220494865e-02
-4.987771264065889165e-02
-4.351974619217562068e-02
-6.492048825814657155e-04
4.165508003537239656e-02
5.775253685325944242e-02
3.553758272925632011e-02
9.604923280079705541e-03
7.686982762183201942e-04
8.719614138086865390e-03
-3.922577800781172283e-03
-1.985667093934027211e-02
-1.479092589134938830e-02
1.647861023308148584e-02
4.255547263906141880e-02
4.471653871783522888e-02
2.648556835288399039e-02
-2.033517593499723636e-03
-2.789537331668623041e-02
-1.775023452929637077e-02
6.695339744524378585e-03
3.218297308187017397e-02
2.085725468052373674e-02
4.614379328545668477e-04
-1.549036783938150669e-02
-2.628685485889829809e-02
-4.887248646834950472e-02
-5.902386285308549446e-02
-2.941441734531592689e-02
4.035219657547516742e-02
8.333310395017762273e-02
7.887184153189533142e-02
6.249742592442837641e-02
4.387422744376937717e-02
9.881813352110019669e-03
-1.726178900287033552e-02
-1.849391742200279590e-02
-9.710103139443490919e-03
-9.465889887803446978e-03
-8.989535073512138971e-03
-2.886047665363680043e-02
-6.622616942002261531e-02
-7.825551886349008113e-02
-5.654945555551634667e-02
-1.123673706258971824e-02
3.540182177338231650e-02
6.761505488208176262e-02
7.750357982943259505e-02
7.315239606642257031e-02
6.518506328227859081e-02
4.556657769350746373e-02
8.912905280375877509e-03
-2.476267169639552110e-02
-5.356323081008836084e-02
-4.361277080569746917e-02
-2.272033124023626477e-02
-3.528977202342024194e-02
-6.819740101510599062e-02
-7.754941068546240823e-02
-4.059899508937651891e-02
1.155766275226316692e-03
1.847435540726774864e-02
3.702265636306403124e-02
5.177488002264041267e-02
5.551247879198405177e-02
5.516038337497768812e-02
4.870483305393166068e-02
2.500809416379220357e-02
-2.441869814622249155e-02
-6.265005839527187925e-02
-6.060489599146189760e-02
-3.784142730828352758e-02
-2.713727443939012787e-02
-4.151690128758708798e-02
-3.898104912632856939e-02
-2.244812299117233262e-02
-1.197940131678578574e-02
-5.769241239529671744e-03
3.949316615978646153e-03
1.801921998799396393e-02
2.398437045083251160e-02
2.539279232715038054e-02
2.059995231876142474e-02
6.922215252833405913e-03
-1.582832015995281130e-02
-4.245131139466176706e-02
-4.827028271979931506e-02
-4.241323027814380975e-02
